Language model created by QuickLM on Wed Dec 14 11:05:26 EST 2011
Copyright (c) 1996-2010 Carnegie Mellon University and Alexander I. Rudnicky

The model is in standard ARPA format, designed by Doug Paul while he was at MITRE.

The code that was used to produce this language model is available in Open Source.
Please visit http://www.speech.cs.cmu.edu/tools/ for more information

The (fixed) discount mass is 0.5. The backoffs are computed using the ratio method.
This model based on a corpus of 16 sentences and 21 words

\data\
ngram 1=21
ngram 2=35
ngram 3=19

\1-grams:
-0.8045 </s> -0.3010
-0.8045 <s> -0.2269
-2.0086 ADDRESS -0.2269
-2.0086 CANCEL -0.2269
-2.0086 CONTINUE -0.2269
-2.0086 DOWN -0.2269
-2.0086 EMAIL -0.2968
-2.0086 GO -0.2269
-2.0086 NO -0.2269
-2.0086 NUMBER -0.2269
-2.0086 OPTIONS -0.2269
-2.0086 PAUSE -0.2269
-2.0086 RESET -0.2269
-2.0086 RESTART -0.2269
-2.0086 ROOM -0.2968
-2.0086 SLOW -0.2968
-2.0086 START -0.2269
-2.0086 STOP -0.2269
-2.0086 TIMETABLE -0.2269
-2.0086 WAIT -0.2269
-2.0086 YES -0.2269

\2-grams:
-1.5051 <s> CANCEL 0.0000
-1.5051 <s> CONTINUE 0.0000
-1.5051 <s> EMAIL 0.0000
-1.5051 <s> GO 0.0000
-1.5051 <s> NO 0.0000
-1.5051 <s> OPTIONS 0.0000
-1.5051 <s> PAUSE 0.0000
-1.5051 <s> RESET 0.0000
-1.5051 <s> RESTART 0.0000
-1.5051 <s> ROOM 0.0000
-1.5051 <s> SLOW 0.0000
-1.5051 <s> START 0.0000
-1.5051 <s> STOP 0.0000
-1.5051 <s> TIMETABLE 0.0000
-1.5051 <s> WAIT 0.0000
-1.5051 <s> YES 0.0000
-0.3010 ADDRESS </s> -0.3010
-0.3010 CANCEL </s> -0.3010
-0.3010 CONTINUE </s> -0.3010
-0.3010 DOWN </s> -0.3010
-0.3010 EMAIL ADDRESS 0.0000
-0.3010 GO </s> -0.3010
-0.3010 NO </s> -0.3010
-0.3010 NUMBER </s> -0.3010
-0.3010 OPTIONS </s> -0.3010
-0.3010 PAUSE </s> -0.3010
-0.3010 RESET </s> -0.3010
-0.3010 RESTART </s> -0.3010
-0.3010 ROOM NUMBER 0.0000
-0.3010 SLOW DOWN 0.0000
-0.3010 START </s> -0.3010
-0.3010 STOP </s> -0.3010
-0.3010 TIMETABLE </s> -0.3010
-0.3010 WAIT </s> -0.3010
-0.3010 YES </s> -0.3010

\3-grams:
-0.3010 <s> CANCEL </s>
-0.3010 <s> CONTINUE </s>
-0.3010 <s> EMAIL ADDRESS
-0.3010 <s> GO </s>
-0.3010 <s> NO </s>
-0.3010 <s> OPTIONS </s>
-0.3010 <s> PAUSE </s>
-0.3010 <s> RESET </s>
-0.3010 <s> RESTART </s>
-0.3010 <s> ROOM NUMBER
-0.3010 <s> SLOW DOWN
-0.3010 <s> START </s>
-0.3010 <s> STOP </s>
-0.3010 <s> TIMETABLE </s>
-0.3010 <s> WAIT </s>
-0.3010 <s> YES </s>
-0.3010 EMAIL ADDRESS </s>
-0.3010 ROOM NUMBER </s>
-0.3010 SLOW DOWN </s>

\end\
