Language model created by QuickLM on Wed Dec 14 11:09:57 EST 2011
Copyright (c) 1996-2010 Carnegie Mellon University and Alexander I. Rudnicky

The model is in standard ARPA format, designed by Doug Paul while he was at MITRE.

The code that was used to produce this language model is available in Open Source.
Please visit http://www.speech.cs.cmu.edu/tools/ for more information

The (fixed) discount mass is 0.5. The backoffs are computed using the ratio method.
This model based on a corpus of 57 sentences and 86 words

\data\
ngram 1=86
ngram 2=141
ngram 3=84

\1-grams:
-2.5977 0 -0.2335
-2.5977 1 -0.2335
-2.5977 10 -0.2335
-2.5977 11 -0.2335
-2.5977 12 -0.2335
-2.5977 13 -0.2335
-2.5977 14 -0.2335
-2.5977 15 -0.2335
-2.5977 16 -0.2335
-2.5977 17 -0.2335
-2.5977 18 -0.2335
-2.5977 19 -0.2335
-2.5977 2 -0.2335
-2.5977 20 -0.2335
-2.5977 3 -0.2335
-2.5977 4 -0.2335
-2.5977 5 -0.2335
-2.5977 6 -0.2335
-2.5977 7 -0.2335
-2.5977 8 -0.2335
-2.5977 9 -0.2335
-0.8418 </s> -0.3010
-0.8418 <s> -0.2335
-2.5977 ALESSANDRO -0.2999
-2.5977 ALLWRIGHT -0.2335
-2.5977 ANDREW -0.2999
-2.5977 ASTOLFI -0.2335
-2.5977 BARRIA -0.2335
-2.5977 BOUGANIS -0.2335
-2.5977 BROOKES -0.2335
-2.5977 CHEUNG -0.2335
-2.5977 CHRIS -0.2999
-2.5977 CHRISTINE -0.2999
-2.5977 CHRISTOS -0.2999
-2.5977 CLARE -0.2999
-2.5977 CLARKE -0.2335
-2.5977 DEMIRIS -0.2335
-2.5977 DR -0.2335
-2.5977 DRAGOTTI -0.2335
-2.5977 DRYSDALE -0.2335
-2.5977 DURRANI -0.2335
-2.5977 ERIC -0.2999
-2.5977 FOBELETS -0.2335
-2.5977 GREEN -0.2335
-2.5977 GURCAN -0.2335
-2.5977 HANCOX -0.2335
-2.5977 HOLMES -0.2335
-2.5977 IMAD -0.2999
-2.5977 JAIMOUKHA -0.2335
-2.5977 JAVIER -0.2999
-2.5977 JEREMY -0.2999
-2.5977 KAY -0.2999
-2.5977 KERRIGAN -0.2335
-2.5977 KIN -0.2999
-2.5977 KRISTEL -0.2999
-2.5977 LEUNG -0.2335
-2.5977 LUIGI -0.2999
-2.5977 MANIKAS -0.2335
-2.5977 MIKE -0.2999
-2.5977 MISS -0.2335
-2.5977 MITCHESON -0.2335
-2.5977 MR -0.2335
-2.5977 MRS -0.2335
-2.5977 MUSTAFA -0.2999
-2.5977 NAYLOR -0.2335
-2.5977 OFFICE -0.2335
-2.5977 PAPAVASSILIOU -0.2335
-2.5977 PATRICK -0.2999
-2.5977 PAUL -0.2999
-2.5977 PETER -0.2999
-2.5977 PIER -0.2999
-2.5977 PIKE -0.2335
-2.5977 PITT -0.2335
-2.5977 PROF -0.2335
-2.5977 PROFESSOR -0.2335
-2.5977 RICHARD -0.2999
-2.5977 SYMS -0.2335
-2.5977 THANASSIS -0.2999
-2.5977 THOMAS -0.2999
-2.5977 TIM -0.2999
-2.5977 TOUMAZOU -0.2335
-2.5977 UNDERGRAD -0.2335
-2.5977 UNDERGRADUATE -0.2999
-2.5977 YEATMAN -0.2335
-2.5977 YIANNIS -0.2999
-2.5977 ZAHID -0.2999

\2-grams:
-0.3010 0 </s> -0.3010
-0.3010 1 </s> -0.3010
-0.3010 10 </s> -0.3010
-0.3010 11 </s> -0.3010
-0.3010 12 </s> -0.3010
-0.3010 13 </s> -0.3010
-0.3010 14 </s> -0.3010
-0.3010 15 </s> -0.3010
-0.3010 16 </s> -0.3010
-0.3010 17 </s> -0.3010
-0.3010 18 </s> -0.3010
-0.3010 19 </s> -0.3010
-0.3010 2 </s> -0.3010
-0.3010 20 </s> -0.3010
-0.3010 3 </s> -0.3010
-0.3010 4 </s> -0.3010
-0.3010 5 </s> -0.3010
-0.3010 6 </s> -0.3010
-0.3010 7 </s> -0.3010
-0.3010 8 </s> -0.3010
-0.3010 9 </s> -0.3010
-2.0569 <s> 0 0.0000
-2.0569 <s> 1 0.0000
-2.0569 <s> 10 0.0000
-2.0569 <s> 11 0.0000
-2.0569 <s> 12 0.0000
-2.0569 <s> 13 0.0000
-2.0569 <s> 14 0.0000
-2.0569 <s> 15 0.0000
-2.0569 <s> 16 0.0000
-2.0569 <s> 17 0.0000
-2.0569 <s> 18 0.0000
-2.0569 <s> 19 0.0000
-2.0569 <s> 2 0.0000
-2.0569 <s> 20 0.0000
-2.0569 <s> 3 0.0000
-2.0569 <s> 4 0.0000
-2.0569 <s> 5 0.0000
-2.0569 <s> 6 0.0000
-2.0569 <s> 7 0.0000
-2.0569 <s> 8 0.0000
-2.0569 <s> 9 0.0000
-2.0569 <s> ALESSANDRO 0.0000
-2.0569 <s> ANDREW 0.0000
-2.0569 <s> CHRIS 0.0000
-2.0569 <s> CHRISTINE 0.0000
-2.0569 <s> CHRISTOS 0.0000
-2.0569 <s> CLARE 0.0000
-2.0569 <s> DR 0.0000
-2.0569 <s> ERIC 0.0000
-2.0569 <s> IMAD 0.0000
-2.0569 <s> JAVIER 0.0000
-2.0569 <s> JEREMY 0.0000
-2.0569 <s> KAY 0.0000
-2.0569 <s> KERRIGAN 0.0000
-2.0569 <s> KIN 0.0000
-2.0569 <s> KRISTEL 0.0000
-2.0569 <s> MIKE 0.0000
-2.0569 <s> MISS 0.0000
-2.0569 <s> MR 0.0000
-2.0569 <s> MRS 0.0000
-2.0569 <s> MUSTAFA 0.0000
-2.0569 <s> PAPAVASSILIOU 0.0000
-2.0569 <s> PATRICK 0.0000
-2.0569 <s> PAUL 0.0000
-2.0569 <s> PETER 0.0000
-2.0569 <s> PIER 0.0000
-2.0569 <s> PIKE 0.0000
-2.0569 <s> PROF 0.0000
-2.0569 <s> PROFESSOR 0.0000
-2.0569 <s> RICHARD 0.0000
-2.0569 <s> THANASSIS 0.0000
-2.0569 <s> THOMAS 0.0000
-2.0569 <s> TIM 0.0000
-2.0569 <s> UNDERGRAD 0.0000
-2.0569 <s> UNDERGRADUATE 0.0000
-2.0569 <s> YIANNIS 0.0000
-2.0569 <s> ZAHID 0.0000
-0.3010 ALESSANDRO ASTOLFI 0.0000
-0.3010 ALLWRIGHT </s> -0.3010
-0.3010 ANDREW HOLMES 0.0000
-0.3010 ASTOLFI </s> -0.3010
-0.3010 BARRIA </s> -0.3010
-0.3010 BOUGANIS </s> -0.3010
-0.3010 BROOKES </s> -0.3010
-0.3010 CHEUNG </s> -0.3010
-0.3010 CHRIS TOUMAZOU 0.0000
-0.3010 CHRISTINE ALLWRIGHT 0.0000
-0.3010 CHRISTOS BOUGANIS 0.0000
-0.3010 CLARE DRYSDALE 0.0000
-0.3010 CLARKE </s> -0.3010
-0.3010 DEMIRIS </s> -0.3010
-0.3010 DR </s> -0.3010
-0.3010 DRAGOTTI </s> -0.3010
-0.3010 DRYSDALE </s> -0.3010
-0.3010 DURRANI </s> -0.3010
-0.3010 ERIC YEATMAN 0.0000
-0.3010 FOBELETS </s> -0.3010
-0.3010 GREEN </s> -0.3010
-0.3010 GURCAN </s> -0.3010
-0.3010 HANCOX </s> -0.3010
-0.3010 HOLMES </s> -0.3010
-0.3010 IMAD JAIMOUKHA 0.0000
-0.3010 JAIMOUKHA </s> -0.3010
-0.3010 JAVIER BARRIA 0.0000
-0.3010 JEREMY PITT 0.0000
-0.3010 KAY HANCOX 0.0000
-0.3010 KERRIGAN </s> -0.3010
-0.3010 KIN LEUNG 0.0000
-0.3010 KRISTEL FOBELETS 0.0000
-0.3010 LEUNG </s> -0.3010
-0.3010 LUIGI DRAGOTTI 0.0000
-0.3010 MANIKAS </s> -0.3010
-0.3010 MIKE BROOKES 0.0000
-0.3010 MISS </s> -0.3010
-0.3010 MITCHESON </s> -0.3010
-0.3010 MR </s> -0.3010
-0.3010 MRS </s> -0.3010
-0.3010 MUSTAFA GURCAN 0.0000
-0.3010 NAYLOR </s> -0.3010
-0.3010 OFFICE </s> -0.3010
-0.3010 PAPAVASSILIOU </s> -0.3010
-0.3010 PATRICK NAYLOR 0.0000
-0.3010 PAUL MITCHESON 0.0000
-0.3010 PETER CHEUNG 0.0000
-0.3010 PIER LUIGI 0.0000
-0.3010 PIKE </s> -0.3010
-0.3010 PITT </s> -0.3010
-0.3010 PROF </s> -0.3010
-0.3010 PROFESSOR </s> -0.3010
-0.3010 RICHARD SYMS 0.0000
-0.3010 SYMS </s> -0.3010
-0.3010 THANASSIS MANIKAS 0.0000
-0.3010 THOMAS CLARKE 0.0000
-0.3010 TIM GREEN 0.0000
-0.3010 TOUMAZOU </s> -0.3010
-0.3010 UNDERGRAD </s> -0.3010
-0.3010 UNDERGRADUATE OFFICE 0.0000
-0.3010 YEATMAN </s> -0.3010
-0.3010 YIANNIS DEMIRIS 0.0000
-0.3010 ZAHID DURRANI 0.0000

\3-grams:
-0.3010 <s> 0 </s>
-0.3010 <s> 1 </s>
-0.3010 <s> 10 </s>
-0.3010 <s> 11 </s>
-0.3010 <s> 12 </s>
-0.3010 <s> 13 </s>
-0.3010 <s> 14 </s>
-0.3010 <s> 15 </s>
-0.3010 <s> 16 </s>
-0.3010 <s> 17 </s>
-0.3010 <s> 18 </s>
-0.3010 <s> 19 </s>
-0.3010 <s> 2 </s>
-0.3010 <s> 20 </s>
-0.3010 <s> 3 </s>
-0.3010 <s> 4 </s>
-0.3010 <s> 5 </s>
-0.3010 <s> 6 </s>
-0.3010 <s> 7 </s>
-0.3010 <s> 8 </s>
-0.3010 <s> 9 </s>
-0.3010 <s> ALESSANDRO ASTOLFI
-0.3010 <s> ANDREW HOLMES
-0.3010 <s> CHRIS TOUMAZOU
-0.3010 <s> CHRISTINE ALLWRIGHT
-0.3010 <s> CHRISTOS BOUGANIS
-0.3010 <s> CLARE DRYSDALE
-0.3010 <s> DR </s>
-0.3010 <s> ERIC YEATMAN
-0.3010 <s> IMAD JAIMOUKHA
-0.3010 <s> JAVIER BARRIA
-0.3010 <s> JEREMY PITT
-0.3010 <s> KAY HANCOX
-0.3010 <s> KERRIGAN </s>
-0.3010 <s> KIN LEUNG
-0.3010 <s> KRISTEL FOBELETS
-0.3010 <s> MIKE BROOKES
-0.3010 <s> MISS </s>
-0.3010 <s> MR </s>
-0.3010 <s> MRS </s>
-0.3010 <s> MUSTAFA GURCAN
-0.3010 <s> PAPAVASSILIOU </s>
-0.3010 <s> PATRICK NAYLOR
-0.3010 <s> PAUL MITCHESON
-0.3010 <s> PETER CHEUNG
-0.3010 <s> PIER LUIGI
-0.3010 <s> PIKE </s>
-0.3010 <s> PROF </s>
-0.3010 <s> PROFESSOR </s>
-0.3010 <s> RICHARD SYMS
-0.3010 <s> THANASSIS MANIKAS
-0.3010 <s> THOMAS CLARKE
-0.3010 <s> TIM GREEN
-0.3010 <s> UNDERGRAD </s>
-0.3010 <s> UNDERGRADUATE OFFICE
-0.3010 <s> YIANNIS DEMIRIS
-0.3010 <s> ZAHID DURRANI
-0.3010 ALESSANDRO ASTOLFI </s>
-0.3010 ANDREW HOLMES </s>
-0.3010 CHRIS TOUMAZOU </s>
-0.3010 CHRISTINE ALLWRIGHT </s>
-0.3010 CHRISTOS BOUGANIS </s>
-0.3010 CLARE DRYSDALE </s>
-0.3010 ERIC YEATMAN </s>
-0.3010 IMAD JAIMOUKHA </s>
-0.3010 JAVIER BARRIA </s>
-0.3010 JEREMY PITT </s>
-0.3010 KAY HANCOX </s>
-0.3010 KIN LEUNG </s>
-0.3010 KRISTEL FOBELETS </s>
-0.3010 LUIGI DRAGOTTI </s>
-0.3010 MIKE BROOKES </s>
-0.3010 MUSTAFA GURCAN </s>
-0.3010 PATRICK NAYLOR </s>
-0.3010 PAUL MITCHESON </s>
-0.3010 PETER CHEUNG </s>
-0.3010 PIER LUIGI DRAGOTTI
-0.3010 RICHARD SYMS </s>
-0.3010 THANASSIS MANIKAS </s>
-0.3010 THOMAS CLARKE </s>
-0.3010 TIM GREEN </s>
-0.3010 UNDERGRADUATE OFFICE </s>
-0.3010 YIANNIS DEMIRIS </s>
-0.3010 ZAHID DURRANI </s>

\end\
