Language model created by QuickLM on Sun Dec 11 19:34:46 EST 2011
Copyright (c) 1996-2010 Carnegie Mellon University and Alexander I. Rudnicky

The model is in standard ARPA format, designed by Doug Paul while he was at MITRE.

The code that was used to produce this language model is available in Open Source.
Please visit http://www.speech.cs.cmu.edu/tools/ for more information

The (fixed) discount mass is 0.5. The backoffs are computed using the ratio method.
This model based on a corpus of 42 sentences and 76 words

\data\
ngram 1=76
ngram 2=116
ngram 3=74

\1-grams:
-0.8764 </s> -0.3010
-0.8764 <s> -0.2391
-2.4997 ADDRESS -0.2391
-2.4997 ALESSANDRO -0.2997
-2.4997 ALLWRIGHT -0.2391
-2.4997 ANDREW -0.2997
-2.4997 ASTOLFI -0.2391
-2.4997 BARRIA -0.2391
-2.4997 BOUGANIS -0.2391
-2.4997 BROOKES -0.2391
-2.4997 CHEUNG -0.2391
-2.4997 CHRIS -0.2997
-2.4997 CHRISTINE -0.2997
-2.4997 CHRISTOS -0.2997
-2.4997 CLARE -0.2997
-2.4997 CLARKE -0.2391
-2.4997 DEMIRIS -0.2391
-2.4997 DEPARTMENT -0.2391
-2.4997 DR -0.2391
-2.4997 DRAGOTTI -0.2391
-2.4997 DRYSDALE -0.2391
-2.4997 DURRANI -0.2391
-2.4997 EMAIL -0.2997
-2.4997 ERIC -0.2997
-2.4997 FOBELETS -0.2391
-2.4997 GREEN -0.2391
-2.4997 GURCAN -0.2391
-2.4997 HANCOX -0.2391
-2.4997 HEAD -0.2997
-2.4997 HOLMES -0.2391
-2.4997 IMAD -0.2997
-2.4997 JAIMOUKHA -0.2391
-2.4997 JAVIER -0.2997
-2.4997 JEREMY -0.2997
-2.4997 KAY -0.2997
-2.4997 KERRIGAN -0.2391
-2.4997 KIN -0.2997
-2.4997 KRISTEL -0.2997
-2.4997 LEUNG -0.2391
-2.4997 LUIGI -0.2997
-2.4997 MANIKAS -0.2391
-2.4997 MIKE -0.2997
-2.4997 MISS -0.2391
-2.4997 MITCHESON -0.2391
-2.4997 MR -0.2391
-2.4997 MRS -0.2391
-2.4997 MUSTAFA -0.2997
-2.4997 NAYLOR -0.2391
-2.4997 NO -0.2391
-2.4997 NUMBER -0.2391
-2.4997 OF -0.2997
-2.4997 OFFICE -0.2391
-2.4997 PAPAVASSILIOU -0.2391
-2.4997 PATRICK -0.2997
-2.4997 PAUL -0.2997
-2.4997 PETER -0.2997
-2.4997 PIER -0.2997
-2.4997 PIKE -0.2391
-2.4997 PITT -0.2391
-2.4997 PROF -0.2391
-2.4997 PROFESSOR -0.2391
-2.4997 RICHARD -0.2997
-2.4997 ROOM -0.2997
-2.4997 SYMS -0.2391
-2.4997 THANASSIS -0.2997
-2.4997 THOMAS -0.2997
-2.4997 TIM -0.2997
-2.4997 TIMETABLE -0.2391
-2.4997 TOM -0.2997
-2.4997 TOUMAZOU -0.2391
-2.4997 UNDERGRAD -0.2391
-2.4997 UNDERGRADUATE -0.2997
-2.4997 YEATMAN -0.2391
-2.4997 YES -0.2391
-2.4997 YIANNIS -0.2997
-2.4997 ZAHID -0.2997

\2-grams:
-1.9243 <s> ALESSANDRO 0.0000
-1.9243 <s> ANDREW 0.0000
-1.9243 <s> CHRIS 0.0000
-1.9243 <s> CHRISTINE 0.0000
-1.9243 <s> CHRISTOS 0.0000
-1.9243 <s> CLARE 0.0000
-1.9243 <s> DR 0.0000
-1.9243 <s> EMAIL 0.0000
-1.9243 <s> ERIC 0.0000
-1.9243 <s> HEAD 0.0000
-1.9243 <s> IMAD 0.0000
-1.9243 <s> JAVIER 0.0000
-1.9243 <s> JEREMY 0.0000
-1.9243 <s> KAY 0.0000
-1.9243 <s> KERRIGAN 0.0000
-1.9243 <s> KIN 0.0000
-1.9243 <s> KRISTEL 0.0000
-1.9243 <s> MIKE 0.0000
-1.9243 <s> MISS 0.0000
-1.9243 <s> MR 0.0000
-1.9243 <s> MRS 0.0000
-1.9243 <s> MUSTAFA 0.0000
-1.9243 <s> NO 0.0000
-1.9243 <s> PAPAVASSILIOU 0.0000
-1.9243 <s> PATRICK 0.0000
-1.9243 <s> PAUL 0.0000
-1.9243 <s> PETER 0.0000
-1.9243 <s> PIER 0.0000
-1.9243 <s> PROF 0.0000
-1.9243 <s> PROFESSOR 0.0000
-1.9243 <s> RICHARD 0.0000
-1.9243 <s> ROOM 0.0000
-1.9243 <s> THANASSIS 0.0000
-1.9243 <s> THOMAS 0.0000
-1.9243 <s> TIM 0.0000
-1.9243 <s> TIMETABLE 0.0000
-1.9243 <s> TOM 0.0000
-1.9243 <s> UNDERGRAD 0.0000
-1.9243 <s> UNDERGRADUATE 0.0000
-1.9243 <s> YES 0.0000
-1.9243 <s> YIANNIS 0.0000
-1.9243 <s> ZAHID 0.0000
-0.3010 ADDRESS </s> -0.3010
-0.3010 ALESSANDRO ASTOLFI 0.0000
-0.3010 ALLWRIGHT </s> -0.3010
-0.3010 ANDREW HOLMES 0.0000
-0.3010 ASTOLFI </s> -0.3010
-0.3010 BARRIA </s> -0.3010
-0.3010 BOUGANIS </s> -0.3010
-0.3010 BROOKES </s> -0.3010
-0.3010 CHEUNG </s> -0.3010
-0.3010 CHRIS TOUMAZOU 0.0000
-0.3010 CHRISTINE ALLWRIGHT 0.0000
-0.3010 CHRISTOS BOUGANIS 0.0000
-0.3010 CLARE DRYSDALE 0.0000
-0.3010 CLARKE </s> -0.3010
-0.3010 DEMIRIS </s> -0.3010
-0.3010 DEPARTMENT </s> -0.3010
-0.3010 DR </s> -0.3010
-0.3010 DRAGOTTI </s> -0.3010
-0.3010 DRYSDALE </s> -0.3010
-0.3010 DURRANI </s> -0.3010
-0.3010 EMAIL ADDRESS 0.0000
-0.3010 ERIC YEATMAN 0.0000
-0.3010 FOBELETS </s> -0.3010
-0.3010 GREEN </s> -0.3010
-0.3010 GURCAN </s> -0.3010
-0.3010 HANCOX </s> -0.3010
-0.3010 HEAD OF 0.0000
-0.3010 HOLMES </s> -0.3010
-0.3010 IMAD JAIMOUKHA 0.0000
-0.3010 JAIMOUKHA </s> -0.3010
-0.3010 JAVIER BARRIA 0.0000
-0.3010 JEREMY PITT 0.0000
-0.3010 KAY HANCOX 0.0000
-0.3010 KERRIGAN </s> -0.3010
-0.3010 KIN LEUNG 0.0000
-0.3010 KRISTEL FOBELETS 0.0000
-0.3010 LEUNG </s> -0.3010
-0.3010 LUIGI DRAGOTTI 0.0000
-0.3010 MANIKAS </s> -0.3010
-0.3010 MIKE BROOKES 0.0000
-0.3010 MISS </s> -0.3010
-0.3010 MITCHESON </s> -0.3010
-0.3010 MR </s> -0.3010
-0.3010 MRS </s> -0.3010
-0.3010 MUSTAFA GURCAN 0.0000
-0.3010 NAYLOR </s> -0.3010
-0.3010 NO </s> -0.3010
-0.3010 NUMBER </s> -0.3010
-0.3010 OF DEPARTMENT 0.0000
-0.3010 OFFICE </s> -0.3010
-0.3010 PAPAVASSILIOU </s> -0.3010
-0.3010 PATRICK NAYLOR 0.0000
-0.3010 PAUL MITCHESON 0.0000
-0.3010 PETER CHEUNG 0.0000
-0.3010 PIER LUIGI 0.0000
-0.3010 PIKE </s> -0.3010
-0.3010 PITT </s> -0.3010
-0.3010 PROF </s> -0.3010
-0.3010 PROFESSOR </s> -0.3010
-0.3010 RICHARD SYMS 0.0000
-0.3010 ROOM NUMBER 0.0000
-0.3010 SYMS </s> -0.3010
-0.3010 THANASSIS MANIKAS 0.0000
-0.3010 THOMAS CLARKE 0.0000
-0.3010 TIM GREEN 0.0000
-0.3010 TIMETABLE </s> -0.3010
-0.3010 TOM PIKE 0.0000
-0.3010 TOUMAZOU </s> -0.3010
-0.3010 UNDERGRAD </s> -0.3010
-0.3010 UNDERGRADUATE OFFICE 0.0000
-0.3010 YEATMAN </s> -0.3010
-0.3010 YES </s> -0.3010
-0.3010 YIANNIS DEMIRIS 0.0000
-0.3010 ZAHID DURRANI 0.0000

\3-grams:
-0.3010 <s> ALESSANDRO ASTOLFI
-0.3010 <s> ANDREW HOLMES
-0.3010 <s> CHRIS TOUMAZOU
-0.3010 <s> CHRISTINE ALLWRIGHT
-0.3010 <s> CHRISTOS BOUGANIS
-0.3010 <s> CLARE DRYSDALE
-0.3010 <s> DR </s>
-0.3010 <s> EMAIL ADDRESS
-0.3010 <s> ERIC YEATMAN
-0.3010 <s> HEAD OF
-0.3010 <s> IMAD JAIMOUKHA
-0.3010 <s> JAVIER BARRIA
-0.3010 <s> JEREMY PITT
-0.3010 <s> KAY HANCOX
-0.3010 <s> KERRIGAN </s>
-0.3010 <s> KIN LEUNG
-0.3010 <s> KRISTEL FOBELETS
-0.3010 <s> MIKE BROOKES
-0.3010 <s> MISS </s>
-0.3010 <s> MR </s>
-0.3010 <s> MRS </s>
-0.3010 <s> MUSTAFA GURCAN
-0.3010 <s> NO </s>
-0.3010 <s> PAPAVASSILIOU </s>
-0.3010 <s> PATRICK NAYLOR
-0.3010 <s> PAUL MITCHESON
-0.3010 <s> PETER CHEUNG
-0.3010 <s> PIER LUIGI
-0.3010 <s> PROF </s>
-0.3010 <s> PROFESSOR </s>
-0.3010 <s> RICHARD SYMS
-0.3010 <s> ROOM NUMBER
-0.3010 <s> THANASSIS MANIKAS
-0.3010 <s> THOMAS CLARKE
-0.3010 <s> TIM GREEN
-0.3010 <s> TIMETABLE </s>
-0.3010 <s> TOM PIKE
-0.3010 <s> UNDERGRAD </s>
-0.3010 <s> UNDERGRADUATE OFFICE
-0.3010 <s> YES </s>
-0.3010 <s> YIANNIS DEMIRIS
-0.3010 <s> ZAHID DURRANI
-0.3010 ALESSANDRO ASTOLFI </s>
-0.3010 ANDREW HOLMES </s>
-0.3010 CHRIS TOUMAZOU </s>
-0.3010 CHRISTINE ALLWRIGHT </s>
-0.3010 CHRISTOS BOUGANIS </s>
-0.3010 CLARE DRYSDALE </s>
-0.3010 EMAIL ADDRESS </s>
-0.3010 ERIC YEATMAN </s>
-0.3010 HEAD OF DEPARTMENT
-0.3010 IMAD JAIMOUKHA </s>
-0.3010 JAVIER BARRIA </s>
-0.3010 JEREMY PITT </s>
-0.3010 KAY HANCOX </s>
-0.3010 KIN LEUNG </s>
-0.3010 KRISTEL FOBELETS </s>
-0.3010 LUIGI DRAGOTTI </s>
-0.3010 MIKE BROOKES </s>
-0.3010 MUSTAFA GURCAN </s>
-0.3010 OF DEPARTMENT </s>
-0.3010 PATRICK NAYLOR </s>
-0.3010 PAUL MITCHESON </s>
-0.3010 PETER CHEUNG </s>
-0.3010 PIER LUIGI DRAGOTTI
-0.3010 RICHARD SYMS </s>
-0.3010 ROOM NUMBER </s>
-0.3010 THANASSIS MANIKAS </s>
-0.3010 THOMAS CLARKE </s>
-0.3010 TIM GREEN </s>
-0.3010 TOM PIKE </s>
-0.3010 UNDERGRADUATE OFFICE </s>
-0.3010 YIANNIS DEMIRIS </s>
-0.3010 ZAHID DURRANI </s>

\end\
