Language model created by QuickLM on Fri Dec 16 08:11:58 EST 2011
Copyright (c) 1996-2010 Carnegie Mellon University and Alexander I. Rudnicky

The model is in standard ARPA format, designed by Doug Paul while he was at MITRE.

The code that was used to produce this language model is available in Open Source.
Please visit http://www.speech.cs.cmu.edu/tools/ for more information

The (fixed) discount mass is 0.5. The backoffs are computed using the ratio method.
This model based on a corpus of 53 sentences and 78 words

\data\
ngram 1=78
ngram 2=129
ngram 3=76

\1-grams:
-2.5611 200 -0.2327
-2.5611 201 -0.2327
-2.5611 202 -0.2327
-2.5611 600 -0.2327
-2.5611 601 -0.2327
-2.5611 602 -0.2327
-2.5611 603 -0.2327
-2.5611 604 -0.2327
-2.5611 606 -0.2327
-2.5611 607 -0.2327
-2.5611 608 -0.2327
-2.5611 608A -0.2327
-2.5611 610 -0.2327
-2.5611 612 -0.2327
-2.5611 613 -0.2327
-2.5611 614 -0.2327
-2.5611 615 -0.2327
-2.5611 616 -0.2327
-2.5611 617 -0.2327
-2.5611 618 -0.2327
-2.5611 619 -0.2327
-2.5611 620 -0.2327
-0.8368 </s> -0.3010
-0.8368 <s> -0.2327
-2.5611 ALLWRIGHT -0.2327
-2.5611 ANDREW -0.2998
-2.5611 BOUGANIS -0.2327
-2.5611 BROOKES -0.2327
-2.5611 CHEUNG -0.2327
-2.5611 CHRIS -0.2998
-2.5611 CHRISTINE -0.2998
-2.5611 CHRISTOS -0.2998
-2.5611 CLARE -0.2998
-2.5611 CLARKE -0.2327
-2.5611 DEMIRIS -0.2327
-2.5611 DR -0.2327
-2.5611 DRAGOTTI -0.2327
-2.5611 DRYSDALE -0.2327
-2.5611 DURRANI -0.2327
-2.5611 ERIC -0.2998
-2.5611 FOBELETS -0.2327
-2.5611 GREEN -0.2327
-2.5611 GURCAN -0.2327
-2.5611 HANCOX -0.2327
-2.5611 HOLMES -0.2327
-2.5611 IMAD -0.2998
-2.5611 JAIMOUKHA -0.2327
-2.5611 JEREMY -0.2998
-2.5611 KAY -0.2998
-2.5611 KERRIGAN -0.2327
-2.5611 KRISTEL -0.2998
-2.5611 LUIGI -0.2998
-2.5611 MANIKAS -0.2327
-2.5611 MIKE -0.2998
-2.5611 MISS -0.2327
-2.5611 MR -0.2327
-2.5611 MRS -0.2327
-2.5611 MUSTAFA -0.2998
-2.5611 NAYLOR -0.2327
-2.5611 OFFICE -0.2327
-2.5611 PATRICK -0.2998
-2.5611 PETER -0.2998
-2.5611 PIER -0.2998
-2.5611 PIKE -0.2327
-2.5611 PITT -0.2327
-2.5611 PROF -0.2327
-2.5611 PROFESSOR -0.2327
-2.5611 RICHARD -0.2998
-2.5611 SYMS -0.2327
-2.5611 THANASSIS -0.2998
-2.5611 THOMAS -0.2998
-2.5611 TIM -0.2998
-2.5611 TOUMAZOU -0.2327
-2.5611 UNDERGRAD -0.2327
-2.5611 UNDERGRADUATE -0.2998
-2.5611 YEATMAN -0.2327
-2.5611 YIANNIS -0.2998
-2.5611 ZAHID -0.2998

\2-grams:
-0.3010 200 </s> -0.3010
-0.3010 201 </s> -0.3010
-0.3010 202 </s> -0.3010
-0.3010 600 </s> -0.3010
-0.3010 601 </s> -0.3010
-0.3010 602 </s> -0.3010
-0.3010 603 </s> -0.3010
-0.3010 604 </s> -0.3010
-0.3010 606 </s> -0.3010
-0.3010 607 </s> -0.3010
-0.3010 608 </s> -0.3010
-0.3010 608A </s> -0.3010
-0.3010 610 </s> -0.3010
-0.3010 612 </s> -0.3010
-0.3010 613 </s> -0.3010
-0.3010 614 </s> -0.3010
-0.3010 615 </s> -0.3010
-0.3010 616 </s> -0.3010
-0.3010 617 </s> -0.3010
-0.3010 618 </s> -0.3010
-0.3010 619 </s> -0.3010
-0.3010 620 </s> -0.3010
-2.0253 <s> 200 0.0000
-2.0253 <s> 201 0.0000
-2.0253 <s> 202 0.0000
-2.0253 <s> 600 0.0000
-2.0253 <s> 601 0.0000
-2.0253 <s> 602 0.0000
-2.0253 <s> 603 0.0000
-2.0253 <s> 604 0.0000
-2.0253 <s> 606 0.0000
-2.0253 <s> 607 0.0000
-2.0253 <s> 608 0.0000
-2.0253 <s> 608A 0.0000
-2.0253 <s> 610 0.0000
-2.0253 <s> 612 0.0000
-2.0253 <s> 613 0.0000
-2.0253 <s> 614 0.0000
-2.0253 <s> 615 0.0000
-2.0253 <s> 616 0.0000
-2.0253 <s> 617 0.0000
-2.0253 <s> 618 0.0000
-2.0253 <s> 619 0.0000
-2.0253 <s> 620 0.0000
-2.0253 <s> ANDREW 0.0000
-2.0253 <s> CHRIS 0.0000
-2.0253 <s> CHRISTINE 0.0000
-2.0253 <s> CHRISTOS 0.0000
-2.0253 <s> CLARE 0.0000
-2.0253 <s> DR 0.0000
-2.0253 <s> ERIC 0.0000
-2.0253 <s> IMAD 0.0000
-2.0253 <s> JEREMY 0.0000
-2.0253 <s> KAY 0.0000
-2.0253 <s> KERRIGAN 0.0000
-2.0253 <s> KRISTEL 0.0000
-2.0253 <s> MIKE 0.0000
-2.0253 <s> MISS 0.0000
-2.0253 <s> MR 0.0000
-2.0253 <s> MRS 0.0000
-2.0253 <s> MUSTAFA 0.0000
-2.0253 <s> PATRICK 0.0000
-2.0253 <s> PETER 0.0000
-2.0253 <s> PIER 0.0000
-2.0253 <s> PIKE 0.0000
-2.0253 <s> PROF 0.0000
-2.0253 <s> PROFESSOR 0.0000
-2.0253 <s> RICHARD 0.0000
-2.0253 <s> THANASSIS 0.0000
-2.0253 <s> THOMAS 0.0000
-2.0253 <s> TIM 0.0000
-2.0253 <s> UNDERGRAD 0.0000
-2.0253 <s> UNDERGRADUATE 0.0000
-2.0253 <s> YIANNIS 0.0000
-2.0253 <s> ZAHID 0.0000
-0.3010 ALLWRIGHT </s> -0.3010
-0.3010 ANDREW HOLMES 0.0000
-0.3010 BOUGANIS </s> -0.3010
-0.3010 BROOKES </s> -0.3010
-0.3010 CHEUNG </s> -0.3010
-0.3010 CHRIS TOUMAZOU 0.0000
-0.3010 CHRISTINE ALLWRIGHT 0.0000
-0.3010 CHRISTOS BOUGANIS 0.0000
-0.3010 CLARE DRYSDALE 0.0000
-0.3010 CLARKE </s> -0.3010
-0.3010 DEMIRIS </s> -0.3010
-0.3010 DR </s> -0.3010
-0.3010 DRAGOTTI </s> -0.3010
-0.3010 DRYSDALE </s> -0.3010
-0.3010 DURRANI </s> -0.3010
-0.3010 ERIC YEATMAN 0.0000
-0.3010 FOBELETS </s> -0.3010
-0.3010 GREEN </s> -0.3010
-0.3010 GURCAN </s> -0.3010
-0.3010 HANCOX </s> -0.3010
-0.3010 HOLMES </s> -0.3010
-0.3010 IMAD JAIMOUKHA 0.0000
-0.3010 JAIMOUKHA </s> -0.3010
-0.3010 JEREMY PITT 0.0000
-0.3010 KAY HANCOX 0.0000
-0.3010 KERRIGAN </s> -0.3010
-0.3010 KRISTEL FOBELETS 0.0000
-0.3010 LUIGI DRAGOTTI 0.0000
-0.3010 MANIKAS </s> -0.3010
-0.3010 MIKE BROOKES 0.0000
-0.3010 MISS </s> -0.3010
-0.3010 MR </s> -0.3010
-0.3010 MRS </s> -0.3010
-0.3010 MUSTAFA GURCAN 0.0000
-0.3010 NAYLOR </s> -0.3010
-0.3010 OFFICE </s> -0.3010
-0.3010 PATRICK NAYLOR 0.0000
-0.3010 PETER CHEUNG 0.0000
-0.3010 PIER LUIGI 0.0000
-0.3010 PIKE </s> -0.3010
-0.3010 PITT </s> -0.3010
-0.3010 PROF </s> -0.3010
-0.3010 PROFESSOR </s> -0.3010
-0.3010 RICHARD SYMS 0.0000
-0.3010 SYMS </s> -0.3010
-0.3010 THANASSIS MANIKAS 0.0000
-0.3010 THOMAS CLARKE 0.0000
-0.3010 TIM GREEN 0.0000
-0.3010 TOUMAZOU </s> -0.3010
-0.3010 UNDERGRAD </s> -0.3010
-0.3010 UNDERGRADUATE OFFICE 0.0000
-0.3010 YEATMAN </s> -0.3010
-0.3010 YIANNIS DEMIRIS 0.0000
-0.3010 ZAHID DURRANI 0.0000

\3-grams:
-0.3010 <s> 200 </s>
-0.3010 <s> 201 </s>
-0.3010 <s> 202 </s>
-0.3010 <s> 600 </s>
-0.3010 <s> 601 </s>
-0.3010 <s> 602 </s>
-0.3010 <s> 603 </s>
-0.3010 <s> 604 </s>
-0.3010 <s> 606 </s>
-0.3010 <s> 607 </s>
-0.3010 <s> 608 </s>
-0.3010 <s> 608A </s>
-0.3010 <s> 610 </s>
-0.3010 <s> 612 </s>
-0.3010 <s> 613 </s>
-0.3010 <s> 614 </s>
-0.3010 <s> 615 </s>
-0.3010 <s> 616 </s>
-0.3010 <s> 617 </s>
-0.3010 <s> 618 </s>
-0.3010 <s> 619 </s>
-0.3010 <s> 620 </s>
-0.3010 <s> ANDREW HOLMES
-0.3010 <s> CHRIS TOUMAZOU
-0.3010 <s> CHRISTINE ALLWRIGHT
-0.3010 <s> CHRISTOS BOUGANIS
-0.3010 <s> CLARE DRYSDALE
-0.3010 <s> DR </s>
-0.3010 <s> ERIC YEATMAN
-0.3010 <s> IMAD JAIMOUKHA
-0.3010 <s> JEREMY PITT
-0.3010 <s> KAY HANCOX
-0.3010 <s> KERRIGAN </s>
-0.3010 <s> KRISTEL FOBELETS
-0.3010 <s> MIKE BROOKES
-0.3010 <s> MISS </s>
-0.3010 <s> MR </s>
-0.3010 <s> MRS </s>
-0.3010 <s> MUSTAFA GURCAN
-0.3010 <s> PATRICK NAYLOR
-0.3010 <s> PETER CHEUNG
-0.3010 <s> PIER LUIGI
-0.3010 <s> PIKE </s>
-0.3010 <s> PROF </s>
-0.3010 <s> PROFESSOR </s>
-0.3010 <s> RICHARD SYMS
-0.3010 <s> THANASSIS MANIKAS
-0.3010 <s> THOMAS CLARKE
-0.3010 <s> TIM GREEN
-0.3010 <s> UNDERGRAD </s>
-0.3010 <s> UNDERGRADUATE OFFICE
-0.3010 <s> YIANNIS DEMIRIS
-0.3010 <s> ZAHID DURRANI
-0.3010 ANDREW HOLMES </s>
-0.3010 CHRIS TOUMAZOU </s>
-0.3010 CHRISTINE ALLWRIGHT </s>
-0.3010 CHRISTOS BOUGANIS </s>
-0.3010 CLARE DRYSDALE </s>
-0.3010 ERIC YEATMAN </s>
-0.3010 IMAD JAIMOUKHA </s>
-0.3010 JEREMY PITT </s>
-0.3010 KAY HANCOX </s>
-0.3010 KRISTEL FOBELETS </s>
-0.3010 LUIGI DRAGOTTI </s>
-0.3010 MIKE BROOKES </s>
-0.3010 MUSTAFA GURCAN </s>
-0.3010 PATRICK NAYLOR </s>
-0.3010 PETER CHEUNG </s>
-0.3010 PIER LUIGI DRAGOTTI
-0.3010 RICHARD SYMS </s>
-0.3010 THANASSIS MANIKAS </s>
-0.3010 THOMAS CLARKE </s>
-0.3010 TIM GREEN </s>
-0.3010 UNDERGRADUATE OFFICE </s>
-0.3010 YIANNIS DEMIRIS </s>
-0.3010 ZAHID DURRANI </s>

\end\
