Language model created by QuickLM on Fri Dec 16 07:15:42 EST 2011
Copyright (c) 1996-2010 Carnegie Mellon University and Alexander I. Rudnicky

The model is in standard ARPA format, designed by Doug Paul while he was at MITRE.

The code that was used to produce this language model is available in Open Source.
Please visit http://www.speech.cs.cmu.edu/tools/ for more information

The (fixed) discount mass is 0.5. The backoffs are computed using the ratio method.
This model based on a corpus of 22 sentences and 24 words

\data\
ngram 1=24
ngram 2=44
ngram 3=22

\1-grams:
-2.1206 200 -0.2218
-2.1206 201 -0.2218
-2.1206 202 -0.2218
-2.1206 600 -0.2218
-2.1206 601 -0.2218
-2.1206 602 -0.2218
-2.1206 603 -0.2218
-2.1206 604 -0.2218
-2.1206 606 -0.2218
-2.1206 607 -0.2218
-2.1206 608 -0.2218
-2.1206 608A -0.2218
-2.1206 610 -0.2218
-2.1206 612 -0.2218
-2.1206 613 -0.2218
-2.1206 614 -0.2218
-2.1206 615 -0.2218
-2.1206 616 -0.2218
-2.1206 617 -0.2218
-2.1206 618 -0.2218
-2.1206 619 -0.2218
-2.1206 620 -0.2218
-0.7782 </s> -0.3010
-0.7782 <s> -0.2218

\2-grams:
-0.3010 200 </s> -0.3010
-0.3010 201 </s> -0.3010
-0.3010 202 </s> -0.3010
-0.3010 600 </s> -0.3010
-0.3010 601 </s> -0.3010
-0.3010 602 </s> -0.3010
-0.3010 603 </s> -0.3010
-0.3010 604 </s> -0.3010
-0.3010 606 </s> -0.3010
-0.3010 607 </s> -0.3010
-0.3010 608 </s> -0.3010
-0.3010 608A </s> -0.3010
-0.3010 610 </s> -0.3010
-0.3010 612 </s> -0.3010
-0.3010 613 </s> -0.3010
-0.3010 614 </s> -0.3010
-0.3010 615 </s> -0.3010
-0.3010 616 </s> -0.3010
-0.3010 617 </s> -0.3010
-0.3010 618 </s> -0.3010
-0.3010 619 </s> -0.3010
-0.3010 620 </s> -0.3010
-1.6435 <s> 200 0.0000
-1.6435 <s> 201 0.0000
-1.6435 <s> 202 0.0000
-1.6435 <s> 600 0.0000
-1.6435 <s> 601 0.0000
-1.6435 <s> 602 0.0000
-1.6435 <s> 603 0.0000
-1.6435 <s> 604 0.0000
-1.6435 <s> 606 0.0000
-1.6435 <s> 607 0.0000
-1.6435 <s> 608 0.0000
-1.6435 <s> 608A 0.0000
-1.6435 <s> 610 0.0000
-1.6435 <s> 612 0.0000
-1.6435 <s> 613 0.0000
-1.6435 <s> 614 0.0000
-1.6435 <s> 615 0.0000
-1.6435 <s> 616 0.0000
-1.6435 <s> 617 0.0000
-1.6435 <s> 618 0.0000
-1.6435 <s> 619 0.0000
-1.6435 <s> 620 0.0000

\3-grams:
-0.3010 <s> 200 </s>
-0.3010 <s> 201 </s>
-0.3010 <s> 202 </s>
-0.3010 <s> 600 </s>
-0.3010 <s> 601 </s>
-0.3010 <s> 602 </s>
-0.3010 <s> 603 </s>
-0.3010 <s> 604 </s>
-0.3010 <s> 606 </s>
-0.3010 <s> 607 </s>
-0.3010 <s> 608 </s>
-0.3010 <s> 608A </s>
-0.3010 <s> 610 </s>
-0.3010 <s> 612 </s>
-0.3010 <s> 613 </s>
-0.3010 <s> 614 </s>
-0.3010 <s> 615 </s>
-0.3010 <s> 616 </s>
-0.3010 <s> 617 </s>
-0.3010 <s> 618 </s>
-0.3010 <s> 619 </s>
-0.3010 <s> 620 </s>

\end\
